tree
version=v2
num_class=1
num_tree_per_iteration=1
label_index=0
max_feature_idx=28
objective=binary sigmoid:1
feature_names=V1 V2 V3 V4 V5 V6 V7 V8 V9 V10 V11 V12 V13 V14 V15 V16 V17 V18 V19 V20 V21 V22 V23 V24 V25 V26 V27 V28 NormalizedAmount
feature_infos=[-46.85504720078179:2.4518884899535895] [-63.344698317502697:22.057728990490901] [-33.680984018352497:4.2261084802839699] [-5.6831711981699504:16.8753440335975] [-42.1478983728015:34.0993093435765] [-23.496713929871397:22.5292984665587] [-43.5572415712451:36.877368268259794] [-73.216718455267412:19.587772623440401] [-13.3201546920984:10.370657984046] [-24.588262437247501:15.331741555788099] [-4.7974734647975703:12.018913181619899] [-18.683714633344298:7.8483920756445995] [-5.7918812063208405:4.5690089585660596] [-19.214325490261398:10.526766051784699] [-4.49894467676621:5.8256543186336502] [-14.129854517493101:8.2898895595461912] [-25.162799369324798:9.2535262504728504] [-9.4987459210467691:5.0410691854118399] [-7.2135274301775896:5.5721133268796912] [-28.009635333748999:39.420904248219898] [-34.8303821448146:27.202839157315399] [-10.933143697655:10.503090089945401] [-36.666000066027003:22.528411689774899] [-2.8248489029361701:4.0228658904473198] [-7.4957411040570907:5.8524835709145595] [-2.60455055280817:3.5173456116237998] [-9.7935679051375111:12.1524011068287] [-9.6179154523823911:16.129609138732299] [-0.35322939296682354:78.235271820760417]
tree_sizes=2413

Tree=0
num_leaves=31
num_cat=0
split_feature=13 9 15 26 25 6 16 15 11 25 3 4 3 14 18 4 6 3 16 0 27 13 20 21 2 28 1 1 25 7
split_gain=67577 78647.2 5867.19 2203.71 6626.91 1205.75 504.39 4965.49 651.64 383.23 351.977 808.417 338.836 607.639 75.1311 71.4046 26.5316 23.5697 69.7413 236.19 429.914 36.2116 227.355 26.0855 22.7924 19.2954 18.1931 17.2898 14.6809 12.8405
threshold=-3.6549149412722044 -1.8900099919624949 1.0019357546211103 0.85656806538593666 -0.26948248077138642 -0.5290416081853665 -1.6249602571645299 -2.8612632631385444 -2.3655935846194396 -0.10887603482917098 2.8235453552810252 -0.17386834779151897 4.3895129864771905 0.10588722440435554 0.92603482567616013 -1.7788473893335297 0.24940138701998552 2.6272035162461456 1.6293533230464252 0.8056198342111166 0.035627002281676957 -1.7835288620981298 -0.0092912044644016777 1.0585644491835551 -3.7567259736282392 2.6182682089536837 1.2577897886256151 3.5543526719848555 1.4074477179781351 -0.69900538248808231
decision_type=2 2 2 2 2 2 2 2 2 2 2 2 2 2 2 2 2 2 2 2 2 2 2 2 2 2 2 2 2 2
left_child=1 2 3 10 -5 -3 7 -2 -9 14 11 15 16 -14 -6 -1 -7 -8 21 23 26 22 -19 -20 -12 -10 -21 -11 29 -23
right_child=6 5 -4 4 9 12 17 8 25 27 24 -13 13 -15 -16 -17 -18 18 19 20 -22 28 -24 -25 -26 -27 -28 -29 -30 -31
leaf_value=18.625501937051958 11.743753032064419 3.3528486654566612 1.8010817555085685 -1.5784469049956975 14.460232862980515 -4.9776894826861859 -6.3617451046271469 0.57600261607569792 -6.3661125073767106 20.013924961742436 21.402347986433572 11.683386813599551 1.9644256407661809 -6.3661125073767098 17.615739737277124 21.402347986433263 -6.3661125073767106 -6.3661125073767106 -6.3661125073767106 -6.3661125073767098 -0.19534350875230277 -6.1957538540404515 -3.0002385081273615 -4.9776894826862277 20.080040343870596 -5.3376510076059747 -4.9776894826862277 21.402347986433224 -5.5727279218392702 -6.3503475133413918
leaf_count=20 23 20 34 29 20 20 216176 20 409 20 131 20 20 31 22 36 429 179 310 38 27 815 33 20 21 27 20 33 35 8807
internal_value=0 203.124 457.969 486.524 406.568 13.9504 -0.810924 23.3463 6.30568 501.753 530.009 488.6 6.77336 64.3357 448.583 534.533 0.235095 -0.862021 0.240267 9.70411 44.7345 -0.157695 9.47686 0.68113 550.714 0.271975 8.57352 543.889 -0.369203 -0.42462
internal_count=227845 906 386 352 124 520 226939 479 456 95 228 76 500 51 42 56 449 226460 10284 415 85 9869 212 330 152 436 58 53 9657 9622
shrinkage=1


end of trees

feature importances:
V4=3
V26=3
V2=2
V5=2
V7=2
V14=2
V16=2
V17=2
V1=1
V3=1
V8=1
V10=1
V12=1
V15=1
V19=1
V21=1
V22=1
V27=1
V28=1
NormalizedAmount=1

parameters:
[boosting: gbdt]
[objective: binary]
[metric: auc]
[tree_learner: serial]
[device_type: cpu]
[data: ]
[valid: ]
[num_iterations: 100]
[learning_rate: 0.05]
[num_leaves: 31]
[num_threads: 8]
[max_depth: -1]
[min_data_in_leaf: 20]
[min_sum_hessian_in_leaf: 0.001]
[bagging_fraction: 1]
[bagging_freq: 0]
[bagging_seed: 3]
[feature_fraction: 1]
[feature_fraction_seed: 2]
[early_stopping_round: 0]
[max_delta_step: 0]
[lambda_l1: 0]
[lambda_l2: 0]
[min_gain_to_split: 0]
[drop_rate: 0.1]
[max_drop: 50]
[skip_drop: 0.5]
[xgboost_dart_mode: 0]
[uniform_drop: 0]
[drop_seed: 4]
[top_rate: 0.2]
[other_rate: 0.1]
[min_data_per_group: 100]
[max_cat_threshold: 32]
[cat_l2: 10]
[cat_smooth: 10]
[max_cat_to_onehot: 4]
[top_k: 20]
[monotone_constraints: ]
[feature_contri: ]
[forcedsplits_filename: ]
[refit_decay_rate: 0.9]
[verbosity: 1]
[max_bin: 255]
[min_data_in_bin: 3]
[bin_construct_sample_cnt: 200000]
[histogram_pool_size: -1]
[data_random_seed: 1]
[output_model: LightGBM_model.txt]
[snapshot_freq: -1]
[input_model: ]
[output_result: LightGBM_predict_result.txt]
[initscore_filename: ]
[valid_data_initscores: ]
[pre_partition: 0]
[enable_bundle: 1]
[max_conflict_rate: 0]
[is_enable_sparse: 1]
[sparse_threshold: 0.8]
[use_missing: 1]
[zero_as_missing: 0]
[two_round: 0]
[save_binary: 0]
[enable_load_from_binary_file: 1]
[header: 0]
[label_column: ]
[weight_column: ]
[group_column: ]
[ignore_column: ]
[categorical_feature: ]
[predict_raw_score: 0]
[predict_leaf_index: 0]
[predict_contrib: 0]
[num_iteration_predict: -1]
[pred_early_stop: 0]
[pred_early_stop_freq: 10]
[pred_early_stop_margin: 10]
[convert_model_language: ]
[convert_model: gbdt_prediction.cpp]
[num_class: 1]
[is_unbalance: 0]
[scale_pos_weight: 1]
[sigmoid: 1]
[boost_from_average: 1]
[reg_sqrt: 0]
[alpha: 0.9]
[fair_c: 1]
[poisson_max_delta_step: 0.7]
[tweedie_variance_power: 1.5]
[max_position: 20]
[label_gain: ]
[metric_freq: 1]
[is_provide_training_metric: 0]
[eval_at: ]
[num_machines: 1]
[local_listen_port: 12400]
[time_out: 120]
[machine_list_filename: ]
[machines: ]
[gpu_platform_id: -1]
[gpu_device_id: -1]
[gpu_use_dp: 0]

end of parameters

pandas_categorical:[]
